digraph Tree {
node [shape=box, style="filled, rounded", color="black", fontname=helvetica] ;
edge [fontname=helvetica] ;
0 [label="petal width (cm) <= 0.8\ngini = 0.67\nsamples = 97\nvalue = [50, 49, 51]\nclass = virginica", fillcolor="#8139e503"] ;
1 [label="gini = 0.0\nsamples = 34\nvalue = [50, 0, 0]\nclass = setosa", fillcolor="#e58139ff"] ;
0 -> 1 [labeldistance=2.5, labelangle=45, headlabel="True"] ;
2 [label="petal length (cm) <= 4.95\ngini = 0.5\nsamples = 63\nvalue = [0, 49, 51]\nclass = virginica", fillcolor="#8139e50a"] ;
0 -> 2 [labeldistance=2.5, labelangle=-45, headlabel="False"] ;
3 [label="petal length (cm) <= 4.75\ngini = 0.23\nsamples = 34\nvalue = [0, 46, 7]\nclass = versicolor", fillcolor="#39e581d8"] ;
2 -> 3 ;
4 [label="petal width (cm) <= 1.65\ngini = 0.12\nsamples = 28\nvalue = [0, 42, 3]\nclass = versicolor", fillcolor="#39e581ed"] ;
3 -> 4 ;
5 [label="gini = 0.0\nsamples = 27\nvalue = [0, 42, 0]\nclass = versicolor", fillcolor="#39e581ff"] ;
4 -> 5 ;
6 [label="gini = 0.0\nsamples = 1\nvalue = [0, 0, 3]\nclass = virginica", fillcolor="#8139e5ff"] ;
4 -> 6 ;
7 [label="petal width (cm) <= 1.65\ngini = 0.5\nsamples = 6\nvalue = [0, 4, 4]\nclass = versicolor", fillcolor="#39e58100"] ;
3 -> 7 ;
8 [label="gini = 0.0\nsamples = 3\nvalue = [0, 4, 0]\nclass = versicolor", fillcolor="#39e581ff"] ;
7 -> 8 ;
9 [label="gini = 0.0\nsamples = 3\nvalue = [0, 0, 4]\nclass = virginica", fillcolor="#8139e5ff"] ;
7 -> 9 ;
10 [label="sepal length (cm) <= 6.05\ngini = 0.12\nsamples = 29\nvalue = [0, 3, 44]\nclass = virginica", fillcolor="#8139e5ee"] ;
2 -> 10 ;
11 [label="petal width (cm) <= 1.7\ngini = 0.35\nsamples = 4\nvalue = [0, 2, 7]\nclass = virginica", fillcolor="#8139e5b6"] ;
10 -> 11 ;
12 [label="gini = 0.0\nsamples = 1\nvalue = [0, 2, 0]\nclass = versicolor", fillcolor="#39e581ff"] ;
11 -> 12 ;
13 [label="gini = 0.0\nsamples = 3\nvalue = [0, 0, 7]\nclass = virginica", fillcolor="#8139e5ff"] ;
11 -> 13 ;
14 [label="petal width (cm) <= 1.75\ngini = 0.05\nsamples = 25\nvalue = [0, 1, 37]\nclass = virginica", fillcolor="#8139e5f8"] ;
10 -> 14 ;
15 [label="petal length (cm) <= 5.05\ngini = 0.28\nsamples = 4\nvalue = [0, 1, 5]\nclass = virginica", fillcolor="#8139e5cc"] ;
14 -> 15 ;
16 [label="gini = 0.0\nsamples = 1\nvalue = [0, 1, 0]\nclass = versicolor", fillcolor="#39e581ff"] ;
15 -> 16 ;
17 [label="gini = 0.0\nsamples = 3\nvalue = [0, 0, 5]\nclass = virginica", fillcolor="#8139e5ff"] ;
15 -> 17 ;
18 [label="gini = 0.0\nsamples = 21\nvalue = [0, 0, 32]\nclass = virginica", fillcolor="#8139e5ff"] ;
14 -> 18 ;
}